<?xml version="1.0"?>
<opencv_storage>
<cascade>
  <stageType>BOOST</stageType>
  <featureType>HAAR</featureType>
  <height>31</height>
  <width>42</width>
  <stageParams>
    <boostType>GAB</boostType>
    <minHitRate>9.9500000476837158e-01</minHitRate>
    <maxFalseAlarm>5.0000000000000000e-01</maxFalseAlarm>
    <weightTrimRate>9.4999998807907104e-01</weightTrimRate>
    <maxDepth>1</maxDepth>
    <maxWeakCount>100</maxWeakCount></stageParams>
  <featureParams>
    <maxCatCount>0</maxCatCount>
    <featSize>1</featSize>
    <mode>BASIC</mode></featureParams>
  <stageNum>13</stageNum>
  <stages>
    <!-- stage 0 -->
    <_>
      <maxWeakCount>2</maxWeakCount>
      <stageThreshold>-3.1030082702636719e-01</stageThreshold>
      <weakClassifiers>
        <_>
          <internalNodes>
            0 -1 35 -4.1177358478307724e-02</internalNodes>
          <leafValues>
            9.0045249462127686e-01 -6.9432723522186279e-01</leafValues></_>
        <_>
          <internalNodes>
            0 -1 33 -8.4470678120851517e-03</internalNodes>
          <leafValues>
            3.8402640819549561e-01 -1.</leafValues></_></weakClassifiers></_>
    <!-- stage 1 -->
    <_>
      <maxWeakCount>3</maxWeakCount>
      <stageThreshold>-1.2562502622604370e+00</stageThreshold>
      <weakClassifiers>
        <_>
          <internalNodes>
            0 -1 39 8.4068961441516876e-03</internalNodes>
          <leafValues>
            -8.0269539356231689e-01 4.1482967138290405e-01</leafValues></_>
        <_>
          <internalNodes>
            0 -1 52 4.0895622223615646e-03</internalNodes>
          <leafValues>
            -7.7284193038940430e-01 4.3466356396675110e-01</leafValues></_>
        <_>
          <internalNodes>
            0 -1 2 6.6509153693914413e-03</internalNodes>
          <leafValues>
            -9.5224756002426147e-01 3.1928709149360657e-01</leafValues></_></weakClassifiers></_>
    <!-- stage 2 -->
    <_>
      <maxWeakCount>5</maxWeakCount>
      <stageThreshold>-1.5848501920700073e+00</stageThreshold>
      <weakClassifiers>
        <_>
          <internalNodes>
            0 -1 36 -4.1147328913211823e-02</internalNodes>
          <leafValues>
            5.5026453733444214e-01 -7.5404858589172363e-01</leafValues></_>
        <_>
          <internalNodes>
            0 -1 48 5.8035179972648621e-03</internalNodes>
          <leafValues>
            -7.9370707273483276e-01 4.6882286667823792e-01</leafValues></_>
        <_>
          <internalNodes>
            0 -1 51 1.9609262235462666e-03</internalNodes>
          <leafValues>
            -7.4952089786529541e-01 4.4576263427734375e-01</leafValues></_>
        <_>
          <internalNodes>
            0 -1 20 5.7578627020120621e-03</internalNodes>
          <leafValues>
            2.5251880288124084e-01 -9.2088067531585693e-01</leafValues></_>
        <_>
          <internalNodes>
            0 -1 13 3.4293472766876221e-02</internalNodes>
          <leafValues>
            -5.5498743057250977e-01 4.5990759134292603e-01</leafValues></_></weakClassifiers></_>
    <!-- stage 3 -->
    <_>
      <maxWeakCount>5</maxWeakCount>
      <stageThreshold>-1.2741730213165283e+00</stageThreshold>
      <weakClassifiers>
        <_>
          <internalNodes>
            0 -1 35 -4.5933499932289124e-02</internalNodes>
          <leafValues>
            7.5115209817886353e-01 -6.7618155479431152e-01</leafValues></_>
        <_>
          <internalNodes>
            0 -1 14 2.5291057303547859e-02</internalNodes>
          <leafValues>
            -5.2147978544235229e-01 6.4491462707519531e-01</leafValues></_>
        <_>
          <internalNodes>
            0 -1 44 -3.2857427868293598e-05</internalNodes>
          <leafValues>
            -9.6466815471649170e-01 2.9659512639045715e-01</leafValues></_>
        <_>
          <internalNodes>
            0 -1 54 1.1425185017287731e-02</internalNodes>
          <leafValues>
            -6.1305230855941772e-01 4.2208534479141235e-01</leafValues></_>
        <_>
          <internalNodes>
            0 -1 40 -2.8107406105846167e-03</internalNodes>
          <leafValues>
            -1. 2.3994544148445129e-01</leafValues></_></weakClassifiers></_>
    <!-- stage 4 -->
    <_>
      <maxWeakCount>6</maxWeakCount>
      <stageThreshold>-1.2800806760787964e+00</stageThreshold>
      <weakClassifiers>
        <_>
          <internalNodes>
            0 -1 25 -3.7385053932666779e-02</internalNodes>
          <leafValues>
            4.2148759961128235e-01 -7.2074335813522339e-01</leafValues></_>
        <_>
          <internalNodes>
            0 -1 50 -4.2599323205649853e-03</internalNodes>
          <leafValues>
            -9.8288345336914063e-01 1.7536008358001709e-01</leafValues></_>
        <_>
          <internalNodes>
            0 -1 1 2.9659070423804224e-04</internalNodes>
          <leafValues>
            -7.9518777132034302e-01 2.5187599658966064e-01</leafValues></_>
        <_>
          <internalNodes>
            0 -1 16 -3.9481803774833679e-02</internalNodes>
          <leafValues>
            -9.0664958953857422e-01 2.8308936953544617e-01</leafValues></_>
        <_>
          <internalNodes>
            0 -1 37 -1.1405006982386112e-02</internalNodes>
          <leafValues>
            4.9982768297195435e-01 -4.8016560077667236e-01</leafValues></_>
        <_>
          <internalNodes>
            0 -1 45 -2.3472854867577553e-02</internalNodes>
          <leafValues>
            4.0024173259735107e-01 -6.4358228445053101e-01</leafValues></_></weakClassifiers></_>
    <!-- stage 5 -->
    <_>
      <maxWeakCount>6</maxWeakCount>
      <stageThreshold>-1.3514598608016968e+00</stageThreshold>
      <weakClassifiers>
        <_>
          <internalNodes>
            0 -1 42 -5.0148766487836838e-02</internalNodes>
          <leafValues>
            7.4000000953674316e-01 -6.6388112306594849e-01</leafValues></_>
        <_>
          <internalNodes>
            0 -1 53 3.8295108824968338e-03</internalNodes>
          <leafValues>
            -8.7207251787185669e-01 3.4129244089126587e-01</leafValues></_>
        <_>
          <internalNodes>
            0 -1 49 -8.4049906581640244e-03</internalNodes>
          <leafValues>
            4.3938240408897400e-01 -5.6502377986907959e-01</leafValues></_>
        <_>
          <internalNodes>
            0 -1 60 -1.6889383550733328e-03</internalNodes>
          <leafValues>
            -8.6786037683486938e-01 3.1217291951179504e-01</leafValues></_>
        <_>
          <internalNodes>
            0 -1 30 5.4830191656947136e-03</internalNodes>
          <leafValues>
            -6.1921989917755127e-01 3.3312892913818359e-01</leafValues></_>
        <_>
          <internalNodes>
            0 -1 0 1.8354328349232674e-02</internalNodes>
          <leafValues>
            2.6207485795021057e-01 -9.0019041299819946e-01</leafValues></_></weakClassifiers></_>
    <!-- stage 6 -->
    <_>
      <maxWeakCount>4</maxWeakCount>
      <stageThreshold>-9.6031212806701660e-01</stageThreshold>
      <weakClassifiers>
        <_>
          <internalNodes>
            0 -1 19 2.1526334807276726e-02</internalNodes>
          <leafValues>
            -6.7179489135742188e-01 7.6076555252075195e-01</leafValues></_>
        <_>
          <internalNodes>
            0 -1 24 -2.0637465058825910e-04</internalNodes>
          <leafValues>
            3.3986404538154602e-01 -7.9916965961456299e-01</leafValues></_>
        <_>
          <internalNodes>
            0 -1 55 -1.7321508494205773e-05</internalNodes>
          <leafValues>
            3.3983030915260315e-01 -7.8007376194000244e-01</leafValues></_>
        <_>
          <internalNodes>
            0 -1 4 1.7064851708710194e-03</internalNodes>
          <leafValues>
            2.4918061494827271e-01 -9.6821159124374390e-01</leafValues></_></weakClassifiers></_>
    <!-- stage 7 -->
    <_>
      <maxWeakCount>3</maxWeakCount>
      <stageThreshold>-9.5276594161987305e-01</stageThreshold>
      <weakClassifiers>
        <_>
          <internalNodes>
            0 -1 15 4.0513768792152405e-02</internalNodes>
          <leafValues>
            -7.3105871677398682e-01 4.8476454615592957e-01</leafValues></_>
        <_>
          <internalNodes>
            0 -1 34 1.4382214285433292e-02</internalNodes>
          <leafValues>
            -5.8259505033493042e-01 4.7025591135025024e-01</leafValues></_>
        <_>
          <internalNodes>
            0 -1 21 2.2319393232464790e-02</internalNodes>
          <leafValues>
            -6.7692762613296509e-01 3.6088782548904419e-01</leafValues></_></weakClassifiers></_>
    <!-- stage 8 -->
    <_>
      <maxWeakCount>6</maxWeakCount>
      <stageThreshold>-1.3722640275955200e+00</stageThreshold>
      <weakClassifiers>
        <_>
          <internalNodes>
            0 -1 47 -4.4899038970470428e-02</internalNodes>
          <leafValues>
            6.7619049549102783e-01 -6.6417908668518066e-01</leafValues></_>
        <_>
          <internalNodes>
            0 -1 46 9.7044510766863823e-03</internalNodes>
          <leafValues>
            -4.8303034901618958e-01 5.5182415246963501e-01</leafValues></_>
        <_>
          <internalNodes>
            0 -1 58 1.4535741880536079e-02</internalNodes>
          <leafValues>
            2.6376342773437500e-01 -8.8412576913833618e-01</leafValues></_>
        <_>
          <internalNodes>
            0 -1 38 -3.9787766581866890e-05</internalNodes>
          <leafValues>
            2.6598426699638367e-01 -7.6952642202377319e-01</leafValues></_>
        <_>
          <internalNodes>
            0 -1 61 -6.3383635133504868e-03</internalNodes>
          <leafValues>
            -9.6766644716262817e-01 2.1699048578739166e-01</leafValues></_>
        <_>
          <internalNodes>
            0 -1 3 -4.8829399747774005e-04</internalNodes>
          <leafValues>
            -9.6258342266082764e-01 1.7675264179706573e-01</leafValues></_></weakClassifiers></_>
    <!-- stage 9 -->
    <_>
      <maxWeakCount>5</maxWeakCount>
      <stageThreshold>-1.8361747264862061e+00</stageThreshold>
      <weakClassifiers>
        <_>
          <internalNodes>
            0 -1 22 4.6559441834688187e-02</internalNodes>
          <leafValues>
            -6.5596330165863037e-01 8.5057473182678223e-01</leafValues></_>
        <_>
          <internalNodes>
            0 -1 32 5.8169574913335964e-05</internalNodes>
          <leafValues>
            -6.8360197544097900e-01 3.7347167730331421e-01</leafValues></_>
        <_>
          <internalNodes>
            0 -1 26 -3.0556585988961160e-04</internalNodes>
          <leafValues>
            -7.3833024501800537e-01 3.5292074084281921e-01</leafValues></_>
        <_>
          <internalNodes>
            0 -1 56 1.9417628645896912e-02</internalNodes>
          <leafValues>
            -3.2456809282302856e-01 7.4536126852035522e-01</leafValues></_>
        <_>
          <internalNodes>
            0 -1 29 5.3443727083504200e-03</internalNodes>
          <leafValues>
            -5.2496206760406494e-01 5.1198291778564453e-01</leafValues></_></weakClassifiers></_>
    <!-- stage 10 -->
    <_>
      <maxWeakCount>6</maxWeakCount>
      <stageThreshold>-1.3455085754394531e+00</stageThreshold>
      <weakClassifiers>
        <_>
          <internalNodes>
            0 -1 11 1.0963808000087738e-01</internalNodes>
          <leafValues>
            -6.4379829168319702e-01 8.8235294818878174e-01</leafValues></_>
        <_>
          <internalNodes>
            0 -1 28 5.8616888709366322e-03</internalNodes>
          <leafValues>
            -5.6636548042297363e-01 4.0429803729057312e-01</leafValues></_>
        <_>
          <internalNodes>
            0 -1 27 6.0611795634031296e-03</internalNodes>
          <leafValues>
            3.2306364178657532e-01 -7.4794673919677734e-01</leafValues></_>
        <_>
          <internalNodes>
            0 -1 5 3.4243930131196976e-03</internalNodes>
          <leafValues>
            -8.1280559301376343e-01 2.5202742218971252e-01</leafValues></_>
        <_>
          <internalNodes>
            0 -1 23 2.2702109999954700e-03</internalNodes>
          <leafValues>
            2.3548279702663422e-01 -7.9804629087448120e-01</leafValues></_>
        <_>
          <internalNodes>
            0 -1 57 -8.8466197485104203e-04</internalNodes>
          <leafValues>
            -9.4546908140182495e-01 1.8795722723007202e-01</leafValues></_></weakClassifiers></_>
    <!-- stage 11 -->
    <_>
      <maxWeakCount>7</maxWeakCount>
      <stageThreshold>-1.9700951576232910e+00</stageThreshold>
      <weakClassifiers>
        <_>
          <internalNodes>
            0 -1 18 -1.1489227414131165e-02</internalNodes>
          <leafValues>
            3.8323354721069336e-01 -6.9801980257034302e-01</leafValues></_>
        <_>
          <internalNodes>
            0 -1 31 1.3946013059467077e-03</internalNodes>
          <leafValues>
            -4.1885551810264587e-01 5.9799551963806152e-01</leafValues></_>
        <_>
          <internalNodes>
            0 -1 7 3.1610899604856968e-03</internalNodes>
          <leafValues>
            2.3528745770454407e-01 -1.</leafValues></_>
        <_>
          <internalNodes>
            0 -1 41 -5.3890936076641083e-02</internalNodes>
          <leafValues>
            3.6086559295654297e-01 -5.9277492761611938e-01</leafValues></_>
        <_>
          <internalNodes>
            0 -1 62 1.5033814124763012e-03</internalNodes>
          <leafValues>
            2.2532325983047485e-01 -8.3894073963165283e-01</leafValues></_>
        <_>
          <internalNodes>
            0 -1 43 -9.8838172852993011e-03</internalNodes>
          <leafValues>
            -8.8309812545776367e-01 1.8404759466648102e-01</leafValues></_>
        <_>
          <internalNodes>
            0 -1 9 -8.2567669451236725e-03</internalNodes>
          <leafValues>
            -9.2846226692199707e-01 1.5916076302528381e-01</leafValues></_></weakClassifiers></_>
    <!-- stage 12 -->
    <_>
      <maxWeakCount>6</maxWeakCount>
      <stageThreshold>-1.2953782081604004e+00</stageThreshold>
      <weakClassifiers>
        <_>
          <internalNodes>
            0 -1 17 -2.7926515787839890e-02</internalNodes>
          <leafValues>
            8.4615385532379150e-01 -6.4331209659576416e-01</leafValues></_>
        <_>
          <internalNodes>
            0 -1 12 7.0371357724070549e-03</internalNodes>
          <leafValues>
            -5.6020891666412354e-01 4.7276255488395691e-01</leafValues></_>
        <_>
          <internalNodes>
            0 -1 8 2.5509478291496634e-04</internalNodes>
          <leafValues>
            -5.6565195322036743e-01 4.2675459384918213e-01</leafValues></_>
        <_>
          <internalNodes>
            0 -1 6 -1.5451085055246949e-03</internalNodes>
          <leafValues>
            -9.6424233913421631e-01 2.1838870644569397e-01</leafValues></_>
        <_>
          <internalNodes>
            0 -1 10 9.6647944301366806e-03</internalNodes>
          <leafValues>
            2.2992825508117676e-01 -8.8087588548660278e-01</leafValues></_>
        <_>
          <internalNodes>
            0 -1 59 -2.2518923506140709e-03</internalNodes>
          <leafValues>
            1.7513735592365265e-01 -8.2502377033233643e-01</leafValues></_></weakClassifiers></_></stages>
  <features>
    <_>
      <rects>
        <_>
          0 1 4 30 -1.</_>
        <_>
          0 16 4 15 2.</_></rects>
      <tilted>0</tilted></_>
    <_>
      <rects>
        <_>
          0 4 15 4 -1.</_>
        <_>
          5 4 5 4 3.</_></rects>
      <tilted>0</tilted></_>
    <_>
      <rects>
        <_>
          0 4 20 5 -1.</_>
        <_>
          10 4 10 5 2.</_></rects>
      <tilted>0</tilted></_>
    <_>
      <rects>
        <_>
          0 6 2 4 -1.</_>
        <_>
          0 8 2 2 2.</_></rects>
      <tilted>0</tilted></_>
    <_>
      <rects>
        <_>
          0 7 3 9 -1.</_>
        <_>
          0 10 3 3 3.</_></rects>
      <tilted>0</tilted></_>
    <_>
      <rects>
        <_>
          0 7 10 11 -1.</_>
        <_>
          5 7 5 11 2.</_></rects>
      <tilted>0</tilted></_>
    <_>
      <rects>
        <_>
          0 9 3 6 -1.</_>
        <_>
          0 11 3 2 3.</_></rects>
      <tilted>0</tilted></_>
    <_>
      <rects>
        <_>
          0 14 4 16 -1.</_>
        <_>
          0 22 4 8 2.</_></rects>
      <tilted>0</tilted></_>
    <_>
      <rects>
        <_>
          0 23 8 4 -1.</_>
        <_>
          0 23 4 2 2.</_>
        <_>
          4 25 4 2 2.</_></rects>
      <tilted>0</tilted></_>
    <_>
      <rects>
        <_>
          1 0 28 3 -1.</_>
        <_>
          15 0 14 3 2.</_></rects>
      <tilted>0</tilted></_>
    <_>
      <rects>
        <_>
          1 1 14 5 -1.</_>
        <_>
          8 1 7 5 2.</_></rects>
      <tilted>0</tilted></_>
    <_>
      <rects>
        <_>
          1 6 14 22 -1.</_>
        <_>
          1 6 7 11 2.</_>
        <_>
          8 17 7 11 2.</_></rects>
      <tilted>0</tilted></_>
    <_>
      <rects>
        <_>
          1 19 12 3 -1.</_>
        <_>
          5 19 4 3 3.</_></rects>
      <tilted>0</tilted></_>
    <_>
      <rects>
        <_>
          2 9 21 10 -1.</_>
        <_>
          9 9 7 10 3.</_></rects>
      <tilted>0</tilted></_>
    <_>
      <rects>
        <_>
          2 14 20 8 -1.</_>
        <_>
          2 14 10 4 2.</_>
        <_>
          12 18 10 4 2.</_></rects>
      <tilted>0</tilted></_>
    <_>
      <rects>
        <_>
          3 22 31 9 -1.</_>
        <_>
          3 25 31 3 3.</_></rects>
      <tilted>0</tilted></_>
    <_>
      <rects>
        <_>
          4 0 38 4 -1.</_>
        <_>
          23 0 19 4 2.</_></rects>
      <tilted>0</tilted></_>
    <_>
      <rects>
        <_>
          4 14 4 8 -1.</_>
        <_>
          4 18 4 4 2.</_></rects>
      <tilted>0</tilted></_>
    <_>
      <rects>
        <_>
          4 17 2 12 -1.</_>
        <_>
          4 21 2 4 3.</_></rects>
      <tilted>0</tilted></_>
    <_>
      <rects>
        <_>
          4 19 6 6 -1.</_>
        <_>
          7 19 3 6 2.</_></rects>
      <tilted>0</tilted></_>
    <_>
      <rects>
        <_>
          5 0 8 8 -1.</_>
        <_>
          9 0 4 8 2.</_></rects>
      <tilted>0</tilted></_>
    <_>
      <rects>
        <_>
          5 16 24 12 -1.</_>
        <_>
          5 16 12 6 2.</_>
        <_>
          17 22 12 6 2.</_></rects>
      <tilted>0</tilted></_>
    <_>
      <rects>
        <_>
          5 18 9 10 -1.</_>
        <_>
          8 18 3 10 3.</_></rects>
      <tilted>0</tilted></_>
    <_>
      <rects>
        <_>
          5 25 22 6 -1.</_>
        <_>
          5 25 11 3 2.</_>
        <_>
          16 28 11 3 2.</_></rects>
      <tilted>0</tilted></_>
    <_>
      <rects>
        <_>
          6 24 6 1 -1.</_>
        <_>
          9 24 3 1 2.</_></rects>
      <tilted>0</tilted></_>
    <_>
      <rects>
        <_>
          7 12 27 3 -1.</_>
        <_>
          16 12 9 3 3.</_></rects>
      <tilted>0</tilted></_>
    <_>
      <rects>
        <_>
          7 19 8 2 -1.</_>
        <_>
          7 20 8 1 2.</_></rects>
      <tilted>0</tilted></_>
    <_>
      <rects>
        <_>
          8 4 8 15 -1.</_>
        <_>
          8 9 8 5 3.</_></rects>
      <tilted>0</tilted></_>
    <_>
      <rects>
        <_>
          8 12 12 2 -1.</_>
        <_>
          12 12 4 2 3.</_></rects>
      <tilted>0</tilted></_>
    <_>
      <rects>
        <_>
          8 13 15 2 -1.</_>
        <_>
          13 13 5 2 3.</_></rects>
      <tilted>0</tilted></_>
    <_>
      <rects>
        <_>
          11 2 2 20 -1.</_>
        <_>
          11 12 2 10 2.</_></rects>
      <tilted>0</tilted></_>
    <_>
      <rects>
        <_>
          11 17 1 10 -1.</_>
        <_>
          11 22 1 5 2.</_></rects>
      <tilted>0</tilted></_>
    <_>
      <rects>
        <_>
          11 24 1 2 -1.</_>
        <_>
          11 25 1 1 2.</_></rects>
      <tilted>0</tilted></_>
    <_>
      <rects>
        <_>
          12 1 30 8 -1.</_>
        <_>
          27 1 15 8 2.</_></rects>
      <tilted>0</tilted></_>
    <_>
      <rects>
        <_>
          12 16 9 9 -1.</_>
        <_>
          12 19 9 3 3.</_></rects>
      <tilted>0</tilted></_>
    <_>
      <rects>
        <_>
          13 16 4 12 -1.</_>
        <_>
          13 22 4 6 2.</_></rects>
      <tilted>0</tilted></_>
    <_>
      <rects>
        <_>
          13 16 6 14 -1.</_>
        <_>
          13 23 6 7 2.</_></rects>
      <tilted>0</tilted></_>
    <_>
      <rects>
        <_>
          14 15 14 3 -1.</_>
        <_>
          21 15 7 3 2.</_></rects>
      <tilted>0</tilted></_>
    <_>
      <rects>
        <_>
          15 0 21 4 -1.</_>
        <_>
          22 0 7 4 3.</_></rects>
      <tilted>0</tilted></_>
    <_>
      <rects>
        <_>
          15 13 6 14 -1.</_>
        <_>
          15 13 3 7 2.</_>
        <_>
          18 20 3 7 2.</_></rects>
      <tilted>0</tilted></_>
    <_>
      <rects>
        <_>
          15 27 18 4 -1.</_>
        <_>
          21 27 6 4 3.</_></rects>
      <tilted>0</tilted></_>
    <_>
      <rects>
        <_>
          16 0 22 11 -1.</_>
        <_>
          27 0 11 11 2.</_></rects>
      <tilted>0</tilted></_>
    <_>
      <rects>
        <_>
          16 16 15 5 -1.</_>
        <_>
          21 16 5 5 3.</_></rects>
      <tilted>0</tilted></_>
    <_>
      <rects>
        <_>
          17 0 24 2 -1.</_>
        <_>
          29 0 12 2 2.</_></rects>
      <tilted>0</tilted></_>
    <_>
      <rects>
        <_>
          18 0 24 8 -1.</_>
        <_>
          18 4 24 4 2.</_></rects>
      <tilted>0</tilted></_>
    <_>
      <rects>
        <_>
          18 8 24 4 -1.</_>
        <_>
          30 8 12 4 2.</_></rects>
      <tilted>0</tilted></_>
    <_>
      <rects>
        <_>
          19 10 9 6 -1.</_>
        <_>
          22 10 3 6 3.</_></rects>
      <tilted>0</tilted></_>
    <_>
      <rects>
        <_>
          19 10 9 16 -1.</_>
        <_>
          22 10 3 16 3.</_></rects>
      <tilted>0</tilted></_>
    <_>
      <rects>
        <_>
          20 16 9 6 -1.</_>
        <_>
          20 19 9 3 2.</_></rects>
      <tilted>0</tilted></_>
    <_>
      <rects>
        <_>
          21 10 10 12 -1.</_>
        <_>
          21 14 10 4 3.</_></rects>
      <tilted>0</tilted></_>
    <_>
      <rects>
        <_>
          21 26 21 4 -1.</_>
        <_>
          28 26 7 4 3.</_></rects>
      <tilted>0</tilted></_>
    <_>
      <rects>
        <_>
          22 0 5 6 -1.</_>
        <_>
          22 3 5 3 2.</_></rects>
      <tilted>0</tilted></_>
    <_>
      <rects>
        <_>
          22 16 7 6 -1.</_>
        <_>
          22 19 7 3 2.</_></rects>
      <tilted>0</tilted></_>
    <_>
      <rects>
        <_>
          23 1 2 30 -1.</_>
        <_>
          23 11 2 10 3.</_></rects>
      <tilted>0</tilted></_>
    <_>
      <rects>
        <_>
          23 3 15 12 -1.</_>
        <_>
          28 3 5 12 3.</_></rects>
      <tilted>0</tilted></_>
    <_>
      <rects>
        <_>
          24 2 2 5 -1.</_>
        <_>
          25 2 1 5 2.</_></rects>
      <tilted>0</tilted></_>
    <_>
      <rects>
        <_>
          25 9 12 6 -1.</_>
        <_>
          25 12 12 3 2.</_></rects>
      <tilted>0</tilted></_>
    <_>
      <rects>
        <_>
          26 25 4 4 -1.</_>
        <_>
          28 25 2 4 2.</_></rects>
      <tilted>0</tilted></_>
    <_>
      <rects>
        <_>
          29 9 4 20 -1.</_>
        <_>
          29 19 4 10 2.</_></rects>
      <tilted>0</tilted></_>
    <_>
      <rects>
        <_>
          30 13 12 17 -1.</_>
        <_>
          36 13 6 17 2.</_></rects>
      <tilted>0</tilted></_>
    <_>
      <rects>
        <_>
          30 21 10 10 -1.</_>
        <_>
          30 21 5 5 2.</_>
        <_>
          35 26 5 5 2.</_></rects>
      <tilted>0</tilted></_>
    <_>
      <rects>
        <_>
          31 12 6 18 -1.</_>
        <_>
          31 18 6 6 3.</_></rects>
      <tilted>0</tilted></_>
    <_>
      <rects>
        <_>
          41 8 1 12 -1.</_>
        <_>
          41 14 1 6 2.</_></rects>
      <tilted>0</tilted></_></features></cascade>
</opencv_storage>
